#pragma once
#include <cstdarg>
namespace Eloquent {
    namespace ML {
        namespace Port {
            class RandomForest {
                public:
                    /**
                    * Predict class for features vector
                    */
                    int predict(float *x) {
                        uint8_t votes[3] = { 0 };
                        // tree #1
                        if (x[3] <= 1723.5) {
                            if (x[3] <= 452.5) {
                                if (x[2] <= 128.1835479736328) {
                                    if (x[3] <= 439.5) {
                                        votes[0] += 1;
                                    }

                                    else {
                                        if (x[1] <= 79.7816162109375) {
                                            if (x[2] <= 22.04348087310791) {
                                                votes[0] += 1;
                                            }

                                            else {
                                                if (x[0] <= 30.293785095214844) {
                                                    votes[0] += 1;
                                                }

                                                else {
                                                    if (x[2] <= 55.68453598022461) {
                                                        votes[1] += 1;
                                                    }

                                                    else {
                                                        if (x[1] <= 73.99613189697266) {
                                                            votes[0] += 1;
                                                        }

                                                        else {
                                                            if (x[0] <= 31.492534637451172) {
                                                                votes[1] += 1;
                                                            }

                                                            else {
                                                                votes[1] += 1;
                                                            }
                                                        }
                                                    }
                                                }
                                            }
                                        }

                                        else {
                                            votes[0] += 1;
                                        }
                                    }
                                }

                                else {
                                    if (x[3] <= 443.5) {
                                        if (x[1] <= 75.16911315917969) {
                                            if (x[2] <= 136.5390396118164) {
                                                votes[0] += 1;
                                            }

                                            else {
                                                votes[1] += 1;
                                            }
                                        }

                                        else {
                                            votes[0] += 1;
                                        }
                                    }

                                    else {
                                        if (x[2] <= 171.09788513183594) {
                                            if (x[0] <= 30.240673065185547) {
                                                votes[0] += 1;
                                            }

                                            else {
                                                votes[1] += 1;
                                            }
                                        }

                                        else {
                                            votes[0] += 1;
                                        }
                                    }
                                }
                            }

                            else {
                                if (x[2] <= 70.29071807861328) {
                                    if (x[0] <= 29.852148056030273) {
                                        votes[0] += 1;
                                    }

                                    else {
                                        if (x[2] <= 20.058228492736816) {
                                            if (x[3] <= 506.5) {
                                                if (x[3] <= 464.5) {
                                                    votes[0] += 1;
                                                }

                                                else {
                                                    if (x[2] <= 17.154754638671875) {
                                                        if (x[0] <= 30.341129302978516) {
                                                            votes[0] += 1;
                                                        }

                                                        else {
                                                            if (x[3] <= 477.0) {
                                                                votes[1] += 1;
                                                            }

                                                            else {
                                                                votes[1] += 1;
                                                            }
                                                        }
                                                    }

                                                    else {
                                                        votes[0] += 1;
                                                    }
                                                }
                                            }

                                            else {
                                                votes[0] += 1;
                                            }
                                        }

                                        else {
                                            if (x[2] <= 69.43421936035156) {
                                                if (x[3] <= 465.0) {
                                                    if (x[1] <= 78.29348754882812) {
                                                        if (x[0] <= 31.007709503173828) {
                                                            votes[1] += 1;
                                                        }

                                                        else {
                                                            votes[1] += 1;
                                                        }
                                                    }

                                                    else {
                                                        if (x[0] <= 31.27428150177002) {
                                                            if (x[1] <= 80.3247299194336) {
                                                                votes[0] += 1;
                                                            }

                                                            else {
                                                                votes[0] += 1;
                                                            }
                                                        }

                                                        else {
                                                            votes[0] += 1;
                                                        }
                                                    }
                                                }

                                                else {
                                                    if (x[3] <= 533.0) {
                                                        if (x[2] <= 40.33011817932129) {
                                                            if (x[1] <= 70.07189559936523) {
                                                                votes[0] += 1;
                                                            }

                                                            else {
                                                                votes[1] += 1;
                                                            }
                                                        }

                                                        else {
                                                            if (x[2] <= 64.69728088378906) {
                                                                votes[1] += 1;
                                                            }

                                                            else {
                                                                votes[1] += 1;
                                                            }
                                                        }
                                                    }

                                                    else {
                                                        if (x[3] <= 1128.0) {
                                                            votes[0] += 1;
                                                        }

                                                        else {
                                                            votes[1] += 1;
                                                        }
                                                    }
                                                }
                                            }

                                            else {
                                                votes[0] += 1;
                                            }
                                        }
                                    }
                                }

                                else {
                                    if (x[1] <= 81.1236686706543) {
                                        if (x[0] <= 29.52775478363037) {
                                            if (x[3] <= 944.5) {
                                                votes[0] += 1;
                                            }

                                            else {
                                                votes[1] += 1;
                                            }
                                        }

                                        else {
                                            if (x[3] <= 462.5) {
                                                if (x[3] <= 460.5) {
                                                    if (x[0] <= 31.18886089324951) {
                                                        votes[1] += 1;
                                                    }

                                                    else {
                                                        if (x[0] <= 31.486340522766113) {
                                                            votes[1] += 1;
                                                        }

                                                        else {
                                                            votes[0] += 1;
                                                        }
                                                    }
                                                }

                                                else {
                                                    if (x[0] <= 30.066709518432617) {
                                                        votes[0] += 1;
                                                    }

                                                    else {
                                                        if (x[2] <= 91.40411376953125) {
                                                            votes[1] += 1;
                                                        }

                                                        else {
                                                            if (x[2] <= 129.6573715209961) {
                                                                votes[0] += 1;
                                                            }

                                                            else {
                                                                votes[1] += 1;
                                                            }
                                                        }
                                                    }
                                                }
                                            }

                                            else {
                                                if (x[0] <= 31.87822151184082) {
                                                    if (x[2] <= 162.18359375) {
                                                        if (x[2] <= 161.6863555908203) {
                                                            if (x[0] <= 31.006914138793945) {
                                                                votes[1] += 1;
                                                            }

                                                            else {
                                                                votes[1] += 1;
                                                            }
                                                        }

                                                        else {
                                                            votes[0] += 1;
                                                        }
                                                    }

                                                    else {
                                                        if (x[3] <= 1717.5) {
                                                            votes[1] += 1;
                                                        }

                                                        else {
                                                            if (x[2] <= 435.5619812011719) {
                                                                votes[1] += 1;
                                                            }

                                                            else {
                                                                votes[1] += 1;
                                                            }
                                                        }
                                                    }
                                                }

                                                else {
                                                    if (x[2] <= 110.79705047607422) {
                                                        if (x[2] <= 100.8935661315918) {
                                                            if (x[1] <= 71.62879180908203) {
                                                                votes[0] += 1;
                                                            }

                                                            else {
                                                                votes[1] += 1;
                                                            }
                                                        }

                                                        else {
                                                            votes[0] += 1;
                                                        }
                                                    }

                                                    else {
                                                        if (x[0] <= 31.917386054992676) {
                                                            if (x[2] <= 154.82040405273438) {
                                                                votes[0] += 1;
                                                            }

                                                            else {
                                                                votes[1] += 1;
                                                            }
                                                        }

                                                        else {
                                                            if (x[1] <= 68.0570297241211) {
                                                                votes[1] += 1;
                                                            }

                                                            else {
                                                                votes[1] += 1;
                                                            }
                                                        }
                                                    }
                                                }
                                            }
                                        }
                                    }

                                    else {
                                        if (x[3] <= 483.0) {
                                            if (x[3] <= 472.5) {
                                                if (x[2] <= 160.93431091308594) {
                                                    if (x[2] <= 75.77437210083008) {
                                                        votes[0] += 1;
                                                    }

                                                    else {
                                                        if (x[0] <= 30.63991355895996) {
                                                            if (x[2] <= 140.68476104736328) {
                                                                votes[1] += 1;
                                                            }

                                                            else {
                                                                votes[1] += 1;
                                                            }
                                                        }

                                                        else {
                                                            if (x[1] <= 82.59521865844727) {
                                                                votes[0] += 1;
                                                            }

                                                            else {
                                                                votes[1] += 1;
                                                            }
                                                        }
                                                    }
                                                }

                                                else {
                                                    if (x[0] <= 30.496227264404297) {
                                                        votes[0] += 1;
                                                    }

                                                    else {
                                                        votes[0] += 1;
                                                    }
                                                }
                                            }

                                            else {
                                                if (x[0] <= 29.68075180053711) {
                                                    votes[1] += 1;
                                                }

                                                else {
                                                    if (x[1] <= 82.87281036376953) {
                                                        votes[1] += 1;
                                                    }

                                                    else {
                                                        votes[0] += 1;
                                                    }
                                                }
                                            }
                                        }

                                        else {
                                            if (x[0] <= 29.847825050354004) {
                                                votes[0] += 1;
                                            }

                                            else {
                                                if (x[3] <= 507.5) {
                                                    votes[1] += 1;
                                                }

                                                else {
                                                    votes[1] += 1;
                                                }
                                            }
                                        }
                                    }
                                }
                            }
                        }

                        else {
                            if (x[2] <= 380.72015380859375) {
                                if (x[2] <= 372.7336883544922) {
                                    votes[2] += 1;
                                }

                                else {
                                    votes[1] += 1;
                                }
                            }

                            else {
                                votes[2] += 1;
                            }
                        }

                        // tree #2
                        if (x[3] <= 1723.5) {
                            if (x[3] <= 451.5) {
                                if (x[2] <= 128.2327117919922) {
                                    if (x[3] <= 439.5) {
                                        if (x[0] <= 31.969690322875977) {
                                            votes[0] += 1;
                                        }

                                        else {
                                            if (x[2] <= 100.70511627197266) {
                                                votes[0] += 1;
                                            }

                                            else {
                                                votes[0] += 1;
                                            }
                                        }
                                    }

                                    else {
                                        if (x[1] <= 78.86959838867188) {
                                            if (x[0] <= 30.66196060180664) {
                                                if (x[2] <= 46.19814872741699) {
                                                    votes[0] += 1;
                                                }

                                                else {
                                                    votes[1] += 1;
                                                }
                                            }

                                            else {
                                                if (x[1] <= 73.75407028198242) {
                                                    votes[0] += 1;
                                                }

                                                else {
                                                    if (x[0] <= 31.489752769470215) {
                                                        if (x[1] <= 75.50821304321289) {
                                                            votes[1] += 1;
                                                        }

                                                        else {
                                                            votes[0] += 1;
                                                        }
                                                    }

                                                    else {
                                                        votes[1] += 1;
                                                    }
                                                }
                                            }
                                        }

                                        else {
                                            votes[0] += 1;
                                        }
                                    }
                                }

                                else {
                                    if (x[0] <= 30.376266479492188) {
                                        votes[0] += 1;
                                    }

                                    else {
                                        if (x[3] <= 281.0) {
                                            votes[0] += 1;
                                        }

                                        else {
                                            if (x[2] <= 139.8708953857422) {
                                                votes[1] += 1;
                                            }

                                            else {
                                                if (x[2] <= 181.39950561523438) {
                                                    if (x[3] <= 447.5) {
                                                        votes[0] += 1;
                                                    }

                                                    else {
                                                        votes[1] += 1;
                                                    }
                                                }

                                                else {
                                                    votes[1] += 1;
                                                }
                                            }
                                        }
                                    }
                                }
                            }

                            else {
                                if (x[0] <= 29.553223609924316) {
                                    if (x[2] <= 105.6454849243164) {
                                        votes[0] += 1;
                                    }

                                    else {
                                        if (x[0] <= 29.52186107635498) {
                                            votes[1] += 1;
                                        }

                                        else {
                                            votes[0] += 1;
                                        }
                                    }
                                }

                                else {
                                    if (x[2] <= 50.09128761291504) {
                                        if (x[1] <= 77.88122177124023) {
                                            if (x[3] <= 518.5) {
                                                if (x[3] <= 466.5) {
                                                    if (x[2] <= 23.96705913543701) {
                                                        votes[0] += 1;
                                                    }

                                                    else {
                                                        if (x[2] <= 32.191941261291504) {
                                                            votes[1] += 1;
                                                        }

                                                        else {
                                                            votes[1] += 1;
                                                        }
                                                    }
                                                }

                                                else {
                                                    if (x[2] <= 38.40433883666992) {
                                                        votes[1] += 1;
                                                    }

                                                    else {
                                                        if (x[0] <= 30.956767082214355) {
                                                            votes[1] += 1;
                                                        }

                                                        else {
                                                            votes[1] += 1;
                                                        }
                                                    }
                                                }
                                            }

                                            else {
                                                if (x[3] <= 1121.0) {
                                                    votes[0] += 1;
                                                }

                                                else {
                                                    votes[1] += 1;
                                                }
                                            }
                                        }

                                        else {
                                            if (x[3] <= 489.5) {
                                                if (x[0] <= 30.221165657043457) {
                                                    votes[0] += 1;
                                                }

                                                else {
                                                    if (x[2] <= 16.312180995941162) {
                                                        votes[0] += 1;
                                                    }

                                                    else {
                                                        if (x[3] <= 460.5) {
                                                            votes[0] += 1;
                                                        }

                                                        else {
                                                            votes[1] += 1;
                                                        }
                                                    }
                                                }
                                            }

                                            else {
                                                votes[0] += 1;
                                            }
                                        }
                                    }

                                    else {
                                        if (x[3] <= 482.5) {
                                            if (x[1] <= 83.7714614868164) {
                                                if (x[2] <= 87.2898178100586) {
                                                    if (x[0] <= 29.967419624328613) {
                                                        votes[0] += 1;
                                                    }

                                                    else {
                                                        if (x[0] <= 30.391651153564453) {
                                                            votes[1] += 1;
                                                        }

                                                        else {
                                                            if (x[3] <= 459.5) {
                                                                votes[0] += 1;
                                                            }

                                                            else {
                                                                votes[1] += 1;
                                                            }
                                                        }
                                                    }
                                                }

                                                else {
                                                    if (x[2] <= 213.95636749267578) {
                                                        if (x[3] <= 456.5) {
                                                            if (x[1] <= 76.56808090209961) {
                                                                votes[0] += 1;
                                                            }

                                                            else {
                                                                votes[1] += 1;
                                                            }
                                                        }

                                                        else {
                                                            if (x[0] <= 30.798372268676758) {
                                                                votes[1] += 1;
                                                            }

                                                            else {
                                                                votes[1] += 1;
                                                            }
                                                        }
                                                    }

                                                    else {
                                                        votes[1] += 1;
                                                    }
                                                }
                                            }

                                            else {
                                                if (x[1] <= 84.40778732299805) {
                                                    votes[0] += 1;
                                                }

                                                else {
                                                    if (x[0] <= 30.70445442199707) {
                                                        votes[1] += 1;
                                                    }

                                                    else {
                                                        votes[0] += 1;
                                                    }
                                                }
                                            }
                                        }

                                        else {
                                            if (x[1] <= 76.9664306640625) {
                                                if (x[2] <= 162.19678497314453) {
                                                    if (x[1] <= 70.62520980834961) {
                                                        if (x[3] <= 698.5) {
                                                            votes[1] += 1;
                                                        }

                                                        else {
                                                            if (x[2] <= 142.2599105834961) {
                                                                votes[1] += 1;
                                                            }

                                                            else {
                                                                votes[0] += 1;
                                                            }
                                                        }
                                                    }

                                                    else {
                                                        if (x[1] <= 71.92189025878906) {
                                                            if (x[1] <= 71.79192733764648) {
                                                                votes[1] += 1;
                                                            }

                                                            else {
                                                                votes[0] += 1;
                                                            }
                                                        }

                                                        else {
                                                            votes[1] += 1;
                                                        }
                                                    }
                                                }

                                                else {
                                                    if (x[3] <= 1717.5) {
                                                        votes[1] += 1;
                                                    }

                                                    else {
                                                        if (x[2] <= 435.5619812011719) {
                                                            votes[1] += 1;
                                                        }

                                                        else {
                                                            if (x[3] <= 1718.5) {
                                                                votes[1] += 1;
                                                            }

                                                            else {
                                                                votes[1] += 1;
                                                            }
                                                        }
                                                    }
                                                }
                                            }

                                            else {
                                                if (x[2] <= 103.23286819458008) {
                                                    if (x[0] <= 29.90204620361328) {
                                                        votes[0] += 1;
                                                    }

                                                    else {
                                                        if (x[3] <= 525.0) {
                                                            votes[1] += 1;
                                                        }

                                                        else {
                                                            if (x[2] <= 67.98876571655273) {
                                                                votes[0] += 1;
                                                            }

                                                            else {
                                                                votes[0] += 1;
                                                            }
                                                        }
                                                    }
                                                }

                                                else {
                                                    votes[1] += 1;
                                                }
                                            }
                                        }
                                    }
                                }
                            }
                        }

                        else {
                            if (x[3] <= 1724.5) {
                                votes[2] += 1;
                            }

                            else {
                                if (x[3] <= 1735.5) {
                                    if (x[1] <= 71.74433898925781) {
                                        votes[2] += 1;
                                    }

                                    else {
                                        votes[2] += 1;
                                    }
                                }

                                else {
                                    votes[2] += 1;
                                }
                            }
                        }

                        // tree #3
                        if (x[2] <= 471.46856689453125) {
                            if (x[3] <= 451.5) {
                                if (x[3] <= 439.5) {
                                    if (x[2] <= 196.90834045410156) {
                                        if (x[2] <= 135.47120666503906) {
                                            if (x[3] <= 435.5) {
                                                votes[0] += 1;
                                            }

                                            else {
                                                if (x[2] <= 101.24303817749023) {
                                                    votes[0] += 1;
                                                }

                                                else {
                                                    votes[0] += 1;
                                                }
                                            }
                                        }

                                        else {
                                            if (x[1] <= 74.88707733154297) {
                                                votes[0] += 1;
                                            }

                                            else {
                                                votes[0] += 1;
                                            }
                                        }
                                    }

                                    else {
                                        votes[0] += 1;
                                    }
                                }

                                else {
                                    if (x[1] <= 82.09487533569336) {
                                        if (x[2] <= 34.267598152160645) {
                                            votes[0] += 1;
                                        }

                                        else {
                                            if (x[1] <= 74.51358413696289) {
                                                if (x[0] <= 31.011674880981445) {
                                                    votes[0] += 1;
                                                }

                                                else {
                                                    votes[0] += 1;
                                                }
                                            }

                                            else {
                                                if (x[0] <= 30.169525146484375) {
                                                    votes[0] += 1;
                                                }

                                                else {
                                                    if (x[0] <= 30.654471397399902) {
                                                        votes[1] += 1;
                                                    }

                                                    else {
                                                        if (x[1] <= 75.50821304321289) {
                                                            votes[1] += 1;
                                                        }

                                                        else {
                                                            votes[0] += 1;
                                                        }
                                                    }
                                                }
                                            }
                                        }
                                    }

                                    else {
                                        votes[0] += 1;
                                    }
                                }
                            }

                            else {
                                if (x[2] <= 22.82970428466797) {
                                    if (x[1] <= 76.94955825805664) {
                                        if (x[3] <= 542.5) {
                                            if (x[3] <= 469.0) {
                                                if (x[1] <= 71.46073150634766) {
                                                    votes[1] += 1;
                                                }

                                                else {
                                                    votes[0] += 1;
                                                }
                                            }

                                            else {
                                                votes[1] += 1;
                                            }
                                        }

                                        else {
                                            votes[0] += 1;
                                        }
                                    }

                                    else {
                                        votes[0] += 1;
                                    }
                                }

                                else {
                                    if (x[3] <= 1728.5) {
                                        if (x[1] <= 77.31532669067383) {
                                            if (x[2] <= 91.98662567138672) {
                                                if (x[1] <= 70.76235961914062) {
                                                    if (x[0] <= 30.610469818115234) {
                                                        votes[0] += 1;
                                                    }

                                                    else {
                                                        if (x[2] <= 90.7304916381836) {
                                                            if (x[3] <= 700.5) {
                                                                votes[1] += 1;
                                                            }

                                                            else {
                                                                votes[1] += 1;
                                                            }
                                                        }

                                                        else {
                                                            votes[0] += 1;
                                                        }
                                                    }
                                                }

                                                else {
                                                    if (x[0] <= 30.166090965270996) {
                                                        if (x[0] <= 29.93789577484131) {
                                                            votes[1] += 1;
                                                        }

                                                        else {
                                                            votes[0] += 1;
                                                        }
                                                    }

                                                    else {
                                                        if (x[1] <= 75.90313339233398) {
                                                            votes[1] += 1;
                                                        }

                                                        else {
                                                            if (x[1] <= 75.99834823608398) {
                                                                votes[0] += 1;
                                                            }

                                                            else {
                                                                votes[1] += 1;
                                                            }
                                                        }
                                                    }
                                                }
                                            }

                                            else {
                                                if (x[3] <= 468.5) {
                                                    if (x[3] <= 461.5) {
                                                        if (x[0] <= 30.16909885406494) {
                                                            votes[0] += 1;
                                                        }

                                                        else {
                                                            votes[1] += 1;
                                                        }
                                                    }

                                                    else {
                                                        if (x[1] <= 71.26580810546875) {
                                                            votes[1] += 1;
                                                        }

                                                        else {
                                                            if (x[1] <= 73.98440933227539) {
                                                                votes[0] += 1;
                                                            }

                                                            else {
                                                                votes[1] += 1;
                                                            }
                                                        }
                                                    }
                                                }

                                                else {
                                                    if (x[1] <= 75.96900939941406) {
                                                        if (x[3] <= 1717.5) {
                                                            if (x[2] <= 151.31121826171875) {
                                                                votes[1] += 1;
                                                            }

                                                            else {
                                                                votes[1] += 1;
                                                            }
                                                        }

                                                        else {
                                                            if (x[2] <= 434.5051574707031) {
                                                                votes[1] += 1;
                                                            }

                                                            else {
                                                                votes[1] += 1;
                                                            }
                                                        }
                                                    }

                                                    else {
                                                        if (x[2] <= 128.30424118041992) {
                                                            if (x[3] <= 496.5) {
                                                                votes[1] += 1;
                                                            }

                                                            else {
                                                                votes[0] += 1;
                                                            }
                                                        }

                                                        else {
                                                            votes[1] += 1;
                                                        }
                                                    }
                                                }
                                            }
                                        }

                                        else {
                                            if (x[3] <= 521.5) {
                                                if (x[0] <= 29.749218940734863) {
                                                    if (x[1] <= 79.92776489257812) {
                                                        if (x[1] <= 79.31977462768555) {
                                                            votes[1] += 1;
                                                        }

                                                        else {
                                                            votes[1] += 1;
                                                        }
                                                    }

                                                    else {
                                                        if (x[3] <= 475.5) {
                                                            votes[0] += 1;
                                                        }

                                                        else {
                                                            if (x[2] <= 84.33051681518555) {
                                                                votes[0] += 1;
                                                            }

                                                            else {
                                                                votes[1] += 1;
                                                            }
                                                        }
                                                    }
                                                }

                                                else {
                                                    if (x[0] <= 31.359615325927734) {
                                                        if (x[0] <= 30.866592407226562) {
                                                            if (x[0] <= 30.865188598632812) {
                                                                votes[1] += 1;
                                                            }

                                                            else {
                                                                votes[0] += 1;
                                                            }
                                                        }

                                                        else {
                                                            if (x[1] <= 83.92892837524414) {
                                                                votes[1] += 1;
                                                            }

                                                            else {
                                                                votes[0] += 1;
                                                            }
                                                        }
                                                    }

                                                    else {
                                                        if (x[3] <= 468.5) {
                                                            votes[0] += 1;
                                                        }

                                                        else {
                                                            votes[1] += 1;
                                                        }
                                                    }
                                                }
                                            }

                                            else {
                                                if (x[3] <= 1147.0) {
                                                    votes[0] += 1;
                                                }

                                                else {
                                                    votes[1] += 1;
                                                }
                                            }
                                        }
                                    }

                                    else {
                                        votes[2] += 1;
                                    }
                                }
                            }
                        }

                        else {
                            if (x[3] <= 1723.5) {
                                votes[1] += 1;
                            }

                            else {
                                votes[2] += 1;
                            }
                        }

                        // tree #4
                        if (x[2] <= 468.6268768310547) {
                            if (x[1] <= 75.12943649291992) {
                                if (x[2] <= 95.26504516601562) {
                                    if (x[3] <= 455.5) {
                                        votes[0] += 1;
                                    }

                                    else {
                                        if (x[0] <= 32.3251895904541) {
                                            if (x[0] <= 30.572547912597656) {
                                                if (x[2] <= 40.17521858215332) {
                                                    votes[0] += 1;
                                                }

                                                else {
                                                    if (x[2] <= 75.03242492675781) {
                                                        votes[1] += 1;
                                                    }

                                                    else {
                                                        votes[0] += 1;
                                                    }
                                                }
                                            }

                                            else {
                                                if (x[1] <= 69.20478057861328) {
                                                    if (x[3] <= 473.0) {
                                                        if (x[2] <= 90.35567855834961) {
                                                            votes[1] += 1;
                                                        }

                                                        else {
                                                            votes[0] += 1;
                                                        }
                                                    }

                                                    else {
                                                        if (x[2] <= 83.5014419555664) {
                                                            if (x[3] <= 1039.0) {
                                                                votes[0] += 1;
                                                            }

                                                            else {
                                                                votes[1] += 1;
                                                            }
                                                        }

                                                        else {
                                                            votes[1] += 1;
                                                        }
                                                    }
                                                }

                                                else {
                                                    if (x[2] <= 75.17973709106445) {
                                                        if (x[2] <= 3.3316831588745117) {
                                                            if (x[1] <= 72.28496170043945) {
                                                                votes[1] += 1;
                                                            }

                                                            else {
                                                                votes[1] += 1;
                                                            }
                                                        }

                                                        else {
                                                            votes[1] += 1;
                                                        }
                                                    }

                                                    else {
                                                        if (x[3] <= 479.5) {
                                                            votes[0] += 1;
                                                        }

                                                        else {
                                                            votes[1] += 1;
                                                        }
                                                    }
                                                }
                                            }
                                        }

                                        else {
                                            votes[0] += 1;
                                        }
                                    }
                                }

                                else {
                                    if (x[2] <= 402.7608337402344) {
                                        if (x[2] <= 343.7923583984375) {
                                            if (x[3] <= 458.5) {
                                                if (x[0] <= 31.24591636657715) {
                                                    if (x[1] <= 70.51734924316406) {
                                                        votes[0] += 1;
                                                    }

                                                    else {
                                                        votes[0] += 1;
                                                    }
                                                }

                                                else {
                                                    if (x[3] <= 287.0) {
                                                        votes[0] += 1;
                                                    }

                                                    else {
                                                        if (x[1] <= 73.95806121826172) {
                                                            if (x[0] <= 31.67995548248291) {
                                                                votes[0] += 1;
                                                            }

                                                            else {
                                                                votes[1] += 1;
                                                            }
                                                        }

                                                        else {
                                                            votes[1] += 1;
                                                        }
                                                    }
                                                }
                                            }

                                            else {
                                                if (x[3] <= 1730.5) {
                                                    if (x[2] <= 108.24430847167969) {
                                                        if (x[2] <= 107.7570915222168) {
                                                            if (x[0] <= 31.924920082092285) {
                                                                votes[1] += 1;
                                                            }

                                                            else {
                                                                votes[1] += 1;
                                                            }
                                                        }

                                                        else {
                                                            votes[0] += 1;
                                                        }
                                                    }

                                                    else {
                                                        if (x[3] <= 464.0) {
                                                            if (x[1] <= 72.9504165649414) {
                                                                votes[1] += 1;
                                                            }

                                                            else {
                                                                votes[0] += 1;
                                                            }
                                                        }

                                                        else {
                                                            if (x[0] <= 32.10323905944824) {
                                                                votes[1] += 1;
                                                            }

                                                            else {
                                                                votes[1] += 1;
                                                            }
                                                        }
                                                    }
                                                }

                                                else {
                                                    votes[2] += 1;
                                                }
                                            }
                                        }

                                        else {
                                            if (x[3] <= 1724.5) {
                                                votes[1] += 1;
                                            }

                                            else {
                                                if (x[1] <= 72.11455917358398) {
                                                    votes[2] += 1;
                                                }

                                                else {
                                                    votes[2] += 1;
                                                }
                                            }
                                        }
                                    }

                                    else {
                                        if (x[0] <= 31.51497459411621) {
                                            if (x[1] <= 71.36624145507812) {
                                                if (x[3] <= 1723.5) {
                                                    votes[1] += 1;
                                                }

                                                else {
                                                    votes[2] += 1;
                                                }
                                            }

                                            else {
                                                if (x[3] <= 1730.5) {
                                                    if (x[3] <= 1715.5) {
                                                        votes[1] += 1;
                                                    }

                                                    else {
                                                        if (x[2] <= 435.5619812011719) {
                                                            votes[1] += 1;
                                                        }

                                                        else {
                                                            votes[1] += 1;
                                                        }
                                                    }
                                                }

                                                else {
                                                    votes[2] += 1;
                                                }
                                            }
                                        }

                                        else {
                                            if (x[1] <= 70.25206756591797) {
                                                if (x[1] <= 69.99248504638672) {
                                                    votes[2] += 1;
                                                }

                                                else {
                                                    votes[2] += 1;
                                                }
                                            }

                                            else {
                                                if (x[0] <= 31.579696655273438) {
                                                    if (x[1] <= 70.84519958496094) {
                                                        votes[1] += 1;
                                                    }

                                                    else {
                                                        if (x[3] <= 1725.5) {
                                                            votes[1] += 1;
                                                        }

                                                        else {
                                                            votes[2] += 1;
                                                        }
                                                    }
                                                }

                                                else {
                                                    if (x[3] <= 1736.0) {
                                                        votes[1] += 1;
                                                    }

                                                    else {
                                                        votes[2] += 1;
                                                    }
                                                }
                                            }
                                        }
                                    }
                                }
                            }

                            else {
                                if (x[3] <= 441.5) {
                                    votes[0] += 1;
                                }

                                else {
                                    if (x[2] <= 24.490097999572754) {
                                        if (x[1] <= 76.96781539916992) {
                                            if (x[3] <= 505.5) {
                                                votes[1] += 1;
                                            }

                                            else {
                                                votes[0] += 1;
                                            }
                                        }

                                        else {
                                            votes[0] += 1;
                                        }
                                    }

                                    else {
                                        if (x[2] <= 71.24723815917969) {
                                            if (x[1] <= 79.4769058227539) {
                                                if (x[0] <= 30.166090965270996) {
                                                    if (x[3] <= 1170.5) {
                                                        votes[0] += 1;
                                                    }

                                                    else {
                                                        votes[1] += 1;
                                                    }
                                                }

                                                else {
                                                    if (x[1] <= 76.44027328491211) {
                                                        if (x[3] <= 467.5) {
                                                            votes[0] += 1;
                                                        }

                                                        else {
                                                            votes[1] += 1;
                                                        }
                                                    }

                                                    else {
                                                        if (x[2] <= 62.17739295959473) {
                                                            if (x[2] <= 39.985477447509766) {
                                                                votes[1] += 1;
                                                            }

                                                            else {
                                                                votes[1] += 1;
                                                            }
                                                        }

                                                        else {
                                                            votes[1] += 1;
                                                        }
                                                    }
                                                }
                                            }

                                            else {
                                                if (x[0] <= 29.86134433746338) {
                                                    votes[0] += 1;
                                                }

                                                else {
                                                    if (x[3] <= 472.0) {
                                                        votes[0] += 1;
                                                    }

                                                    else {
                                                        if (x[0] <= 30.585400581359863) {
                                                            votes[1] += 1;
                                                        }

                                                        else {
                                                            if (x[1] <= 80.14110946655273) {
                                                                votes[0] += 1;
                                                            }

                                                            else {
                                                                votes[0] += 1;
                                                            }
                                                        }
                                                    }
                                                }
                                            }
                                        }

                                        else {
                                            if (x[0] <= 29.44575786590576) {
                                                if (x[1] <= 79.95572280883789) {
                                                    votes[1] += 1;
                                                }

                                                else {
                                                    if (x[3] <= 540.0) {
                                                        votes[0] += 1;
                                                    }

                                                    else {
                                                        votes[0] += 1;
                                                    }
                                                }
                                            }

                                            else {
                                                if (x[1] <= 84.14581298828125) {
                                                    if (x[0] <= 30.130732536315918) {
                                                        if (x[0] <= 29.894241333007812) {
                                                            if (x[2] <= 439.65618896484375) {
                                                                votes[1] += 1;
                                                            }

                                                            else {
                                                                votes[2] += 1;
                                                            }
                                                        }

                                                        else {
                                                            if (x[3] <= 462.5) {
                                                                votes[0] += 1;
                                                            }

                                                            else {
                                                                votes[1] += 1;
                                                            }
                                                        }
                                                    }

                                                    else {
                                                        if (x[3] <= 457.5) {
                                                            if (x[2] <= 126.60140228271484) {
                                                                votes[0] += 1;
                                                            }

                                                            else {
                                                                votes[1] += 1;
                                                            }
                                                        }

                                                        else {
                                                            if (x[3] <= 1723.5) {
                                                                votes[1] += 1;
                                                            }

                                                            else {
                                                                votes[1] += 1;
                                                            }
                                                        }
                                                    }
                                                }

                                                else {
                                                    if (x[2] <= 95.59534454345703) {
                                                        if (x[2] <= 85.88980102539062) {
                                                            votes[1] += 1;
                                                        }

                                                        else {
                                                            if (x[2] <= 86.32481384277344) {
                                                                votes[0] += 1;
                                                            }

                                                            else {
                                                                votes[1] += 1;
                                                            }
                                                        }
                                                    }

                                                    else {
                                                        votes[0] += 1;
                                                    }
                                                }
                                            }
                                        }
                                    }
                                }
                            }
                        }

                        else {
                            if (x[3] <= 1724.0) {
                                votes[1] += 1;
                            }

                            else {
                                votes[2] += 1;
                            }
                        }

                        // tree #5
                        if (x[3] <= 1724.5) {
                            if (x[2] <= 94.86725616455078) {
                                if (x[1] <= 75.29056167602539) {
                                    if (x[2] <= 46.06801986694336) {
                                        if (x[3] <= 458.5) {
                                            votes[0] += 1;
                                        }

                                        else {
                                            if (x[0] <= 31.840012550354004) {
                                                if (x[3] <= 468.5) {
                                                    votes[1] += 1;
                                                }

                                                else {
                                                    if (x[0] <= 31.25838851928711) {
                                                        if (x[2] <= 3.3316831588745117) {
                                                            if (x[3] <= 492.5) {
                                                                votes[1] += 1;
                                                            }

                                                            else {
                                                                votes[1] += 1;
                                                            }
                                                        }

                                                        else {
                                                            votes[1] += 1;
                                                        }
                                                    }

                                                    else {
                                                        votes[1] += 1;
                                                    }
                                                }
                                            }

                                            else {
                                                if (x[2] <= 28.151174545288086) {
                                                    if (x[0] <= 32.20330810546875) {
                                                        votes[1] += 1;
                                                    }

                                                    else {
                                                        votes[0] += 1;
                                                    }
                                                }

                                                else {
                                                    votes[0] += 1;
                                                }
                                            }
                                        }
                                    }

                                    else {
                                        if (x[3] <= 456.5) {
                                            votes[0] += 1;
                                        }

                                        else {
                                            if (x[3] <= 574.5) {
                                                if (x[0] <= 30.784273147583008) {
                                                    if (x[3] <= 475.5) {
                                                        votes[1] += 1;
                                                    }

                                                    else {
                                                        votes[1] += 1;
                                                    }
                                                }

                                                else {
                                                    votes[1] += 1;
                                                }
                                            }

                                            else {
                                                if (x[1] <= 72.88964080810547) {
                                                    if (x[3] <= 918.5) {
                                                        votes[0] += 1;
                                                    }

                                                    else {
                                                        votes[1] += 1;
                                                    }
                                                }

                                                else {
                                                    votes[1] += 1;
                                                }
                                            }
                                        }
                                    }
                                }

                                else {
                                    if (x[2] <= 26.766343116760254) {
                                        if (x[0] <= 31.393390655517578) {
                                            if (x[0] <= 30.888681411743164) {
                                                votes[0] += 1;
                                            }

                                            else {
                                                if (x[0] <= 30.891837120056152) {
                                                    votes[0] += 1;
                                                }

                                                else {
                                                    votes[0] += 1;
                                                }
                                            }
                                        }

                                        else {
                                            if (x[2] <= 14.932305335998535) {
                                                votes[0] += 1;
                                            }

                                            else {
                                                if (x[3] <= 305.0) {
                                                    votes[0] += 1;
                                                }

                                                else {
                                                    votes[1] += 1;
                                                }
                                            }
                                        }
                                    }

                                    else {
                                        if (x[3] <= 451.0) {
                                            if (x[3] <= 439.5) {
                                                votes[0] += 1;
                                            }

                                            else {
                                                if (x[1] <= 78.74026489257812) {
                                                    votes[1] += 1;
                                                }

                                                else {
                                                    votes[0] += 1;
                                                }
                                            }
                                        }

                                        else {
                                            if (x[0] <= 29.9921875) {
                                                if (x[3] <= 1170.5) {
                                                    if (x[0] <= 29.635106086730957) {
                                                        votes[0] += 1;
                                                    }

                                                    else {
                                                        if (x[2] <= 87.69913864135742) {
                                                            votes[0] += 1;
                                                        }

                                                        else {
                                                            votes[1] += 1;
                                                        }
                                                    }
                                                }

                                                else {
                                                    votes[1] += 1;
                                                }
                                            }

                                            else {
                                                if (x[3] <= 466.5) {
                                                    if (x[2] <= 33.258270263671875) {
                                                        votes[1] += 1;
                                                    }

                                                    else {
                                                        if (x[2] <= 75.5168342590332) {
                                                            votes[0] += 1;
                                                        }

                                                        else {
                                                            if (x[3] <= 464.0) {
                                                                votes[1] += 1;
                                                            }

                                                            else {
                                                                votes[0] += 1;
                                                            }
                                                        }
                                                    }
                                                }

                                                else {
                                                    if (x[1] <= 77.42422485351562) {
                                                        votes[1] += 1;
                                                    }

                                                    else {
                                                        if (x[0] <= 30.765840530395508) {
                                                            if (x[2] <= 71.94974136352539) {
                                                                votes[1] += 1;
                                                            }

                                                            else {
                                                                votes[1] += 1;
                                                            }
                                                        }

                                                        else {
                                                            if (x[0] <= 30.960434913635254) {
                                                                votes[0] += 1;
                                                            }

                                                            else {
                                                                votes[1] += 1;
                                                            }
                                                        }
                                                    }
                                                }
                                            }
                                        }
                                    }
                                }
                            }

                            else {
                                if (x[1] <= 77.788818359375) {
                                    if (x[1] <= 75.65076065063477) {
                                        if (x[3] <= 413.0) {
                                            votes[0] += 1;
                                        }

                                        else {
                                            if (x[3] <= 454.5) {
                                                if (x[1] <= 70.51734924316406) {
                                                    votes[0] += 1;
                                                }

                                                else {
                                                    if (x[1] <= 73.56352233886719) {
                                                        votes[1] += 1;
                                                    }

                                                    else {
                                                        if (x[2] <= 101.74759292602539) {
                                                            votes[0] += 1;
                                                        }

                                                        else {
                                                            votes[1] += 1;
                                                        }
                                                    }
                                                }
                                            }

                                            else {
                                                if (x[3] <= 1723.5) {
                                                    if (x[3] <= 1113.0) {
                                                        if (x[2] <= 162.11660766601562) {
                                                            if (x[3] <= 775.0) {
                                                                votes[1] += 1;
                                                            }

                                                            else {
                                                                votes[0] += 1;
                                                            }
                                                        }

                                                        else {
                                                            votes[1] += 1;
                                                        }
                                                    }

                                                    else {
                                                        if (x[3] <= 1717.5) {
                                                            votes[1] += 1;
                                                        }

                                                        else {
                                                            if (x[3] <= 1718.5) {
                                                                votes[1] += 1;
                                                            }

                                                            else {
                                                                votes[1] += 1;
                                                            }
                                                        }
                                                    }
                                                }

                                                else {
                                                    votes[1] += 1;
                                                }
                                            }
                                        }
                                    }

                                    else {
                                        if (x[3] <= 450.0) {
                                            votes[0] += 1;
                                        }

                                        else {
                                            if (x[2] <= 114.22825241088867) {
                                                if (x[1] <= 76.73589324951172) {
                                                    votes[0] += 1;
                                                }

                                                else {
                                                    votes[1] += 1;
                                                }
                                            }

                                            else {
                                                if (x[1] <= 77.71971130371094) {
                                                    if (x[2] <= 140.3580780029297) {
                                                        if (x[1] <= 75.96713638305664) {
                                                            votes[1] += 1;
                                                        }

                                                        else {
                                                            votes[1] += 1;
                                                        }
                                                    }

                                                    else {
                                                        votes[1] += 1;
                                                    }
                                                }

                                                else {
                                                    votes[1] += 1;
                                                }
                                            }
                                        }
                                    }
                                }

                                else {
                                    if (x[0] <= 29.737716674804688) {
                                        if (x[3] <= 909.0) {
                                            if (x[1] <= 79.8509635925293) {
                                                votes[0] += 1;
                                            }

                                            else {
                                                votes[0] += 1;
                                            }
                                        }

                                        else {
